&genr
    mnemonic = 'genray'
    rayop = 'both'
    dielectric_op = 'enabled'
    r0x = 1.0
    b0 = 1.0
    outdat = 'zrn.dat'
    stat = 'new'
    partner = 'disabled'
/

&tokamak
    eqdskin = 'g521022.01000'
    indexrho = 2
    ipsi = 1
    ionetwo = 1
    ieffic = 3
    ieffic_mom_cons = 0
    psifactr = 0.999
    deltripl = 0.0
    nloop = 24
    i_ripple = 1
    nr = 200
/

&wave
    frqncy = 170000000000.0
    ioxm = 1
    ireflm = 1
    jwave = 1
    istart = 1
    delpwrmn = 0.0001
    ibw = 0
    i_vgr_ini = 1
    poldist_mx = 100000.0
    no_reflection = 1
/

&scatnper
    iscat = 0
    iscat_lh_nicola = 0
/

&dispers
    ib = 1
    id = 2
    iherm = 1
    iabsorp = 1
    iabsorp_ql = 0
    iswitch = 0
    del_y = 0.001
    jy_d = 1
    idswitch = 2
    iabswitch = 1
    n_relt_harm = 5
    n_relt_intgr = 50
    iflux = 2
    i_im_nperp = 1
    i_geom_optic = 1
    ray_direction = 1.0
/

&numercl
    irkmeth = 2
    ndim1 = 6
    isolv = 1
    idif = 1
    nrelt = 100000
    prmt1 = 0.0
    prmt2 = 999900.0
    prmt3 = 0.0001
    prmt4 = 1e-05
    prmt6 = 0.0008
    icorrect = 1
    iout3d = 'enable'
    maxsteps_rk = 10000
/

&output
    iwcntr = 1
    iwopen = 1
    iwj = 1
    itools = 0
    i_plot_b = 1
    i_plot_d = 1
/

&plasma
    ndens = 200
    nbulk = 1
    izeff = 2
    idens = 1
    temp_scale(1) = 1.0
    den_scale(1) = 1.0
    nonuniform_profile_mesh = 'disabled'
/

&species
    charge(1:3) = 1.0, 1.0, 6.0
    dmas(1:3) = 1.0, 3674.0, 22044.0
/

&varden
    var0 = 0.0
    denm = 1.0
    denn = 15.0
    an = 0.5
    sigman = 0.1
/

&denprof
    dense0(1) = 2e+18
    denseb(1) = 1e-05
    rn1de(1) = 2.0
    rn2de(1) = 1.0
/

&tpopprof
    tp0(1) = 1.0
    tpb(1) = 1.0
    rn1tp(1) = 2.0
    rn2tp(1) = 1.0
/

&vflprof
    vfl0(1) = 0.0
    vflb(1) = 0.0
    rn1vfl(1) = 2.0
    rn2vfl(1) = 1.0
/

&zprof
    zeff0 = 1.5
    zeffb = 1.5
    rn1zeff = 2.0
    rn2zeff = 1.0
/

&tprof
    ate0(1) = 1.555
    ateb(1) = 0.063
    rn1te(1) = 1.4
    rn2te(1) = 1.6
/

&grill
    i_n_poloidal = 1
    n_theta_pol = 0.0
    ksi_nperp = '0.0d'
    i_rho_cutoff = 0
    rho_step_find_lhfw_cutoff = 0.001
    rho_initial_find_lhfw_cutoff = 0.999
    ngrill = 1
    igrillpw = 1
    igrilltw = 1
    rhopsi0(1) = 0.98
    thgrill(1) = -30.0
    phigrill(1) = 0.0
    height(1) = 0.11
    nthin(1) = 1
    anmin(1) = -2.5
    anmax(1) = -2.5
    nnkpar(1) = 1
    powers(1) = 250000.0
    antormin(1) = 0.1
    antormax(1) = 1.0
    nnktor(1) = 1
    anpolmin(1) = 0.1
    anpolmax(1) = 1.0
    nnkpol(1) = 1
    ilaunch = 0
    r0launch = 1.6
    z0launch = 0.0
    phi0launch = 0.0
    i_grill_pol_mesh = 1
    i_grill_npar_ntor_npol_mesh = 1
/

&eccone
    powtot = 1000000.0
    raypatt = 'toray'
    ncone = 1
    zst = 4.5
    rst = 7.2
    phist = 0.0
    betast = 135
    alfast = 135
    alpha1 = 0.0
    gzone = 1
    mray(1:5) = 1, 5, 12, 12, 18
    cr(1:5) = 0.0, 0.1, 0.05, -0.05, 0.05
/

&dentab
    prof = 1.0195e+20, 1.0195e+20, 1.0195e+20, 1.0195e+20, 1.0195e+20, 1.0195e+20,
           1.0195e+20, 1.0195e+20, 1.0195e+20, 1.0195e+20, 1.0195e+20, 1.0195e+20,
           1.0195e+20, 1.0195e+20, 1.0195e+20, 1.0195e+20, 1.0195e+20, 1.0195e+20,
           1.0195e+20, 1.0195e+20, 1.0195e+20, 1.0195e+20, 1.0195e+20, 1.0195e+20,
           1.0195e+20, 1.0195e+20, 1.0195e+20, 1.0195e+20, 1.0195e+20, 1.0195e+20,
           1.0195e+20, 1.0195e+20, 1.0195e+20, 1.0195e+20, 1.0195e+20, 1.0195e+20,
           1.0195e+20, 1.0195e+20, 1.0195e+20, 1.0195e+20, 1.0195e+20, 1.0195e+20,
           1.0195e+20, 1.0195e+20, 1.0195e+20, 1.0195e+20, 1.0195e+20, 1.0195e+20,
           1.0195e+20, 1.0195e+20, 1.0195e+20, 1.0195e+20, 1.0195e+20, 1.0195e+20,
           1.0195e+20, 1.0195e+20, 1.0195e+20, 1.0195e+20, 1.0195e+20, 1.0195e+20,
           1.0195e+20, 1.0195e+20, 1.0195e+20, 1.0195e+20, 1.0195e+20, 1.0195e+20,
           1.0195e+20, 1.0195e+20, 1.0195e+20, 1.0195e+20, 1.0195e+20, 1.0195e+20,
           1.0195e+20, 1.0195e+20, 1.0195e+20, 1.0195e+20, 1.0195e+20, 1.0195e+20,
           1.0195e+20, 1.0195e+20, 1.0195e+20, 1.0195e+20, 1.0195e+20, 1.0195e+20,
           1.0195e+20, 1.0195e+20, 1.0195e+20, 1.0195e+20, 1.0195e+20, 1.0195e+20,
           1.0195e+20, 1.0195e+20, 1.0195e+20, 1.0195e+20, 1.0195e+20, 1.0195e+20,
           1.0195e+20, 1.0195e+20, 1.0195e+20, 1.0195e+20, 1.0195e+20, 1.0195e+20,
           1.0195e+20, 1.0195e+20, 1.0195e+20, 1.0195e+20, 1.0195e+20, 1.0195e+20,
           1.0195e+20, 1.0195e+20, 1.0195e+20, 1.0195e+20, 1.0195e+20, 1.0195e+20,
           1.0195e+20, 1.0195e+20, 1.0195e+20, 1.0195e+20, 1.0195e+20, 1.0195e+20,
           1.0195e+20, 1.0195e+20, 1.0195e+20, 1.0195e+20, 1.0195e+20, 1.0195e+20,
           1.0195e+20, 1.0195e+20, 1.0195e+20, 1.0195e+20, 1.0195e+20, 1.0195e+20,
           1.0195e+20, 1.0195e+20, 1.0195e+20, 1.0195e+20, 1.0195e+20, 1.0195e+20,
           1.0195e+20, 1.0195e+20, 1.0195e+20, 1.0194291457286432e+20, 1.0194e+20,
           1.0194e+20, 1.0194e+20, 1.0194e+20, 1.0194e+20, 1.0194e+20, 1.0194e+20,
           1.0194748743718593e+20, 1.0195753768844221e+20, 1.0196e+20, 1.0196e+20,
           1.0196e+20, 1.0196e+20, 1.0196e+20, 1.0196e+20, 1.0196e+20, 1.0196e+20,
           1.0196e+20, 1.0196e+20, 1.0196e+20, 1.0196e+20, 1.0196e+20, 1.0196e+20,
           1.0196e+20, 1.0196e+20, 1.0196e+20, 1.0196e+20, 1.0196e+20, 1.0196e+20,
           1.0210445624970345e+20, 1.0226506464414402e+20, 1.0241554967789163e+20,
           1.0253832916559241e+20, 1.0260426919091916e+20, 1.0259172623735644e+20,
           1.0248926131385393e+20, 1.0227775093316574e+20, 1.019368698096274e+20,
           1.0144629703548492e+20, 1.0080390704972875e+20, 1.0000968913123613e+20,
           9.9045244679866e+19, 9.792725426524884e+19, 9.66481305445554e+19,
           9.520707315008943e+19, 9.359469139476106e+19, 9.181029028943867e+19,
           8.985388018754337e+19, 8.772547288188156e+19, 8.541548325723913e+19,
           8.291377419256362e+19, 8.022960602231384e+19, 7.733414884953001e+19,
           7.422636173026319e+19, 7.090625882823455e+19, 6.736395449706544e+19,
           6.3589311407696855e+19, 5.9582191717733245e+19
/

&dentab_nonuniform_line
/

&temtab
    prof = 23.6042, 23.604114983624825, 23.604014410774337, 23.603913837063914,
           23.603813262496555, 23.603712687075337, 23.603589059112277, 23.60256280637496,
           23.596945929539245, 23.58491472918226, 23.56529777280534, 23.536867019101187,
           23.499519632658625, 23.45328622988133, 23.398411980507287, 23.334957400759617,
           23.263172845895543, 23.183194184974276, 23.095211398679325, 22.999411403166537,
           22.895863359178374, 22.785065964954153, 22.6680810605057, 22.54620631897706,
           22.42078552999953, 22.293288031146552, 22.164982926529493, 22.037193093265003,
           21.911319428666708, 21.788696915476155, 21.670596434736808, 21.557668048850434,
           21.448704392230947, 21.341979552951972, 21.23561129203136, 21.127816581494432,
           21.016682598642962, 20.90032389423591, 20.777013205649247, 20.64480699664763,
           20.502032277294866, 20.347888637022507, 20.183675260663357, 20.0114239778729,
           19.833146907056513, 19.651035691177977, 19.467176421592374, 19.283534033526216,
           19.10234126824884, 18.925639485676914, 18.75530523483264, 18.59235463932103,
           18.43573283369279, 18.283842270869997, 18.134902169349715, 17.98732289468931,
           17.839259525437424, 17.689016557117217, 17.53499862109359, 17.375462642829547,
           17.208772721405726, 17.034310386660668, 16.852990299601903, 16.66620332660477,
           16.475346257031205, 16.28183872255786, 16.08717021463292, 15.89268076394788,
           15.69981705993571, 15.51001058600373, 15.324616237180336, 15.144073328435598,
           14.967783419626222, 14.794723022767968, 14.623845433502469, 14.454188246937122,
           14.28470304072114, 14.114310095805244, 13.942021638050242, 13.766879099667541,
           13.587980048991533, 13.405124197272977, 13.219149936823129, 13.031256950573981,
           12.842628616798486, 12.654350291297765, 12.467606118107057, 12.283602094511036,
           12.103399307334676, 11.928208695238261, 11.759041214598849, 11.596157026775318,
           11.438884483791412, 11.286259244115719, 11.137411525908563, 10.991427653112632,
           10.847390627673155, 10.704383440207623, 10.561535689147052, 10.417887849451732,
           10.272613764286152, 10.125525233034812, 9.976953904562293, 9.827500275319979,
           9.677673231999586, 9.5279896812641, 9.379000868970087, 9.231172551085713,
           9.085116259454349, 8.941330749993808, 8.8002359220747, 8.662015171904919,
           8.526414581785206, 8.393086608256487, 8.26172395752023, 8.132020985655478,
           8.003672054608002, 7.876428611232632, 7.749912649763525, 7.623851448750904,
           7.49802078112055, 7.372592022025071, 7.248067586077117, 7.125021364653815,
           7.004063188375247, 6.88580346669747, 6.770728217175159, 6.659433659916811,
           6.552566226551009, 6.450609005338136, 6.354033997471244, 6.262504990519329,
           6.175149117487328, 6.091116608108732, 6.009393002159619, 5.929061566013442,
           5.849171782858201, 5.768775343493115, 5.686956483599255, 5.60273069314461,
           5.515430401836206, 5.425249143048872, 5.3330470841012945, 5.239768361580749,
           5.146400094019032, 5.053741188511468, 4.962795664248722, 4.874533754917083,
           4.789796282169981, 4.709620046617167, 4.63467161682274, 4.6164,
           4.6164, 4.6164, 4.6164, 4.6164, 4.6164, 4.6164, 4.6164, 4.6164,
           4.6164, 4.6164, 4.6164, 4.6164, 4.6164, 4.6164, 4.6164, 4.6164,
           4.6164, 4.6164, 4.6164, 4.576510810538933, 4.532222173919248,
           4.489688245657965, 4.447806156045303, 4.405546814555056, 4.361894704733318,
           4.31583405500707, 4.26626020805309, 4.2121468821413846, 4.152662762196069,
           4.0878148369367935, 4.017705810721594, 3.9427126424338117, 3.863056873571011,
           3.7790346586437336, 3.6909502483945875, 3.5990142487164345, 3.503430166790855,
           3.4044961033754877, 3.3025144617798623, 3.1973106147353065, 3.0888736893960393,
           2.9770106083743477, 2.8617129376734933, 2.7428822123695973, 2.62031890055051,
           2.493919002480809, 2.3635815185087, 2.23
/

&lsc_approach_nml
    i_lsc_approach = 0
    nv_lsc_ql_lh = 100
    v_par_lsc_dev_vte_max = 10
    n_psi_tsc = 200
    edctsc_min = 1e-05
    icount_iter_max = 20
    eps_diff_d_ql = 1e-06
    n_power_steps = 1
    n_dim_radii_f_plots = 2
    n_radii_f_plots_ar(1:2) = 100, 150
/

&edctsctab
/

&jpartsctab
/
